([11, 5, 1], [array([[-3.45224596e-01,  2.20991438e+00, -1.77926687e+00,
        -2.16868449e+00, -1.78492299e+00, -6.18402666e-01,
        -1.09930928e+01, -8.51281169e+00, -4.08707851e+00,
         1.86771576e+00,  1.80568048e+00],
       [-1.40323368e+01, -4.94154759e+00, -3.57827910e+00,
        -8.74681752e-01, -2.84998436e-01, -1.82431501e+00,
        -1.85648201e-01, -4.76995798e+00,  1.08928041e+01,
        -5.20037257e+00,  1.04931511e-02],
       [ 6.06242155e+00,  6.96321897e-02, -1.90438708e-02,
        -1.24008404e-01, -4.13335254e-01, -9.02918931e+00,
        -3.46330905e+00, -1.23346182e-01, -8.39760220e-02,
        -7.48791665e-01, -9.41124605e-03],
       [-3.24387468e+01, -1.67345424e-01,  2.22721174e-02,
         7.10879982e-02, -1.19037202e-01, -2.17918282e-02,
         1.82686621e-01,  2.58537539e-02, -1.00901394e-01,
         1.27071939e-02, -1.24200232e+00],
       [ 1.43706652e-02,  3.26970727e+00, -2.78073922e+00,
        -1.40593243e+00, -6.88717059e-01, -1.67152568e-01,
        -2.99196448e+00, -5.77700600e-01, -1.04929970e+00,
         2.39757142e-01, -1.82725902e-01]]), array([[ 3.11953923,  0.45843034,  5.41826728,  5.59653238, -1.9825839 ]])], [array([[-1.29866196],
       [ 3.55643705],
       [-1.34226322],
       [21.31382543],
       [-1.19072457]]), array([[-6.01957866]])])